<?xml version="1.0"?>
<opencv_storage>
<cascade>
  <stageType>BOOST</stageType>
  <featureType>HAAR</featureType>
  <height>20</height>
  <width>20</width>
  <stageParams>
    <boostType>GAB</boostType>
    <minHitRate>9.9900001287460327e-01</minHitRate>
    <maxFalseAlarm>5.0000000745058060e-02</maxFalseAlarm>
    <weightTrimRate>9.4999999999999996e-01</weightTrimRate>
    <maxDepth>1</maxDepth>
    <maxWeakCount>100</maxWeakCount></stageParams>
  <featureParams>
    <maxCatCount>0</maxCatCount>
    <featSize>1</featSize>
    <mode>ALL</mode></featureParams>
  <stageNum>2</stageNum>
  <stages>
    <!-- stage 0 -->
    <_>
      <maxWeakCount>1</maxWeakCount>
      <stageThreshold>1.</stageThreshold>
      <weakClassifiers>
        <_>
          <internalNodes>
            0 -1 1 -4.5101010799407959e-01</internalNodes>
          <leafValues>
            1. -1.</leafValues></_></weakClassifiers></_>
    <!-- stage 1 -->
    <_>
      <maxWeakCount>4</maxWeakCount>
      <stageThreshold>-2.4354514479637146e-01</stageThreshold>
      <weakClassifiers>
        <_>
          <internalNodes>
            0 -1 3 -2.6649236679077148e-01</internalNodes>
          <leafValues>
            9.6348881721496582e-01 -9.3688362836837769e-01</leafValues></_>
        <_>
          <internalNodes>
            0 -1 0 -7.1552552282810211e-02</internalNodes>
          <leafValues>
            -9.7346055507659912e-01 8.5532671213150024e-01</leafValues></_>
        <_>
          <internalNodes>
            0 -1 2 -2.5784856081008911e-01</internalNodes>
          <leafValues>
            8.7662190198898315e-01 -9.1796207427978516e-01</leafValues></_>
        <_>
          <internalNodes>
            0 -1 4 1.1717470362782478e-02</internalNodes>
          <leafValues>
            -9.9219691753387451e-01 7.5597381591796875e-01</leafValues></_></weakClassifiers></_></stages>
  <features>
    <_>
      <rects>
        <_>
          0 0 18 6 -1.</_>
        <_>
          6 0 6 6 3.</_></rects>
      <tilted>0</tilted></_>
    <_>
      <rects>
        <_>
          1 4 18 11 -1.</_>
        <_>
          7 4 6 11 3.</_></rects>
      <tilted>0</tilted></_>
    <_>
      <rects>
        <_>
          2 8 16 6 -1.</_>
        <_>
          6 8 8 6 2.</_></rects>
      <tilted>0</tilted></_>
    <_>
      <rects>
        <_>
          3 8 16 6 -1.</_>
        <_>
          7 8 8 6 2.</_></rects>
      <tilted>0</tilted></_>
    <_>
      <rects>
        <_>
          5 6 4 2 -1.</_>
        <_>
          6 7 2 2 2.</_></rects>
      <tilted>1</tilted></_></features></cascade>
</opencv_storage>
